<?xml version="1.0"?>
<opencv_storage>
<stage3>
  <maxWeakCount>8</maxWeakCount>
  <stageThreshold>-1.7934056520462036e+00</stageThreshold>
  <weakClassifiers>
    <_>
      <internalNodes>
        0 -1 1638560 -1.3514766469597816e-02</internalNodes>
      <leafValues>
        4.2005419731140137e-01 -6.6787004470825195e-01</leafValues></_>
    <_>
      <internalNodes>
        0 -1 481457 -1.1543356627225876e-01</internalNodes>
      <leafValues>
        3.2856875658035278e-01 -6.4467698335647583e-01</leafValues></_>
    <_>
      <internalNodes>
        0 -1 168695 -6.0559906996786594e-03</internalNodes>
      <leafValues>
        5.2240371704101563e-01 -3.8280025124549866e-01</leafValues></_>
    <_>
      <internalNodes>
        0 -1 5736412 -5.8558169985190034e-04</internalNodes>
      <leafValues>
        3.9026308059692383e-01 -4.4043824076652527e-01</leafValues></_>
    <_>
      <internalNodes>
        0 -1 346916 2.4068361381068826e-04</internalNodes>
      <leafValues>
        -5.5391705036163330e-01 2.9328063130378723e-01</leafValues></_>
    <_>
      <internalNodes>
        0 -1 1092956 9.7194835543632507e-02</internalNodes>
      <leafValues>
        -2.7410107851028442e-01 7.0585584640502930e-01</leafValues></_>
    <_>
      <internalNodes>
        0 -1 489703 -4.8908036202192307e-02</internalNodes>
      <leafValues>
        4.5885655283927917e-01 -4.1640254855155945e-01</leafValues></_>
    <_>
      <internalNodes>
        0 -1 2183626 -1.5832927078008652e-02</internalNodes>
      <leafValues>
        5.7598745822906494e-01 -2.6170426607131958e-01</leafValues></_></weakClassifiers></stage3>
</opencv_storage>
