<?xml version="1.0"?>
<opencv_storage>
<stage11>
  <maxWeakCount>11</maxWeakCount>
  <stageThreshold>-1.4151204824447632e+00</stageThreshold>
  <weakClassifiers>
    <_>
      <internalNodes>
        0 -1 4278117 -5.8653345331549644e-03</internalNodes>
      <leafValues>
        1.2173913419246674e-02 -6.5119999647140503e-01</leafValues></_>
    <_>
      <internalNodes>
        0 -1 3088084 -1.4622260350733995e-03</internalNodes>
      <leafValues>
        5.1114600896835327e-01 -2.4637186527252197e-01</leafValues></_>
    <_>
      <internalNodes>
        0 -1 5425298 -1.8465011089574546e-04</internalNodes>
      <leafValues>
        3.1599229574203491e-01 -3.4816867113113403e-01</leafValues></_>
    <_>
      <internalNodes>
        0 -1 189748 -8.5431952029466629e-03</internalNodes>
      <leafValues>
        2.5836199522018433e-01 -4.4981566071510315e-01</leafValues></_>
    <_>
      <internalNodes>
        0 -1 5579560 -1.3127001002430916e-03</internalNodes>
      <leafValues>
        -7.5301975011825562e-01 1.1730305105447769e-01</leafValues></_>
    <_>
      <internalNodes>
        0 -1 68756 -1.2755699455738068e-02</internalNodes>
      <leafValues>
        -6.9048589468002319e-01 1.6245612502098083e-01</leafValues></_>
    <_>
      <internalNodes>
        0 -1 5897889 1.9428662199061364e-05</internalNodes>
      <leafValues>
        -4.5197758078575134e-01 2.0833441615104675e-01</leafValues></_>
    <_>
      <internalNodes>
        0 -1 5896395 7.6886819442734122e-05</internalNodes>
      <leafValues>
        1.9192704558372498e-01 -5.5736130475997925e-01</leafValues></_>
    <_>
      <internalNodes>
        0 -1 346068 -4.7318985707534011e-06</internalNodes>
      <leafValues>
        2.0500050485134125e-01 -4.5631307363510132e-01</leafValues></_>
    <_>
      <internalNodes>
        0 -1 5423541 3.9713577280053869e-05</internalNodes>
      <leafValues>
        1.6459520161151886e-01 -5.7719075679779053e-01</leafValues></_>
    <_>
      <internalNodes>
        0 -1 685276 1.9118401687592268e-03</internalNodes>
      <leafValues>
        -1.5573269128799438e-01 6.8611347675323486e-01</leafValues></_></weakClassifiers></stage11>
</opencv_storage>
