<?xml version="1.0"?>
<opencv_storage>
<stage7>
  <maxWeakCount>12</maxWeakCount>
  <stageThreshold>-1.1393074989318848e+00</stageThreshold>
  <weakClassifiers>
    <_>
      <internalNodes>
        0 -1 76860 -2.2594144940376282e-01</internalNodes>
      <leafValues>
        2.0975609123706818e-01 -6.1518985033035278e-01</leafValues></_>
    <_>
      <internalNodes>
        0 -1 4859411 2.7651162235997617e-04</internalNodes>
      <leafValues>
        -4.8087006807327271e-01 3.0798259377479553e-01</leafValues></_>
    <_>
      <internalNodes>
        0 -1 3597244 -2.9843071103096008e-01</internalNodes>
      <leafValues>
        4.0433344244956970e-01 -3.1747674942016602e-01</leafValues></_>
    <_>
      <internalNodes>
        0 -1 233721 -6.0732606798410416e-03</internalNodes>
      <leafValues>
        5.1888805627822876e-01 -2.2214618325233459e-01</leafValues></_>
    <_>
      <internalNodes>
        0 -1 5771048 -1.2140868231654167e-02</internalNodes>
      <leafValues>
        5.6968194246292114e-01 -2.1816770732402802e-01</leafValues></_>
    <_>
      <internalNodes>
        0 -1 3129861 3.1756505370140076e-02</internalNodes>
      <leafValues>
        -1.4675582945346832e-01 7.0644676685333252e-01</leafValues></_>
    <_>
      <internalNodes>
        0 -1 3344481 1.2889617937617004e-04</internalNodes>
      <leafValues>
        1.9416832923889160e-01 -6.6532856225967407e-01</leafValues></_>
    <_>
      <internalNodes>
        0 -1 672482 -8.6916219443082809e-03</internalNodes>
      <leafValues>
        3.3784085512161255e-01 -3.1936380267143250e-01</leafValues></_>
    <_>
      <internalNodes>
        0 -1 3991040 -5.9560347835940775e-06</internalNodes>
      <leafValues>
        2.4879808723926544e-01 -4.3579640984535217e-01</leafValues></_>
    <_>
      <internalNodes>
        0 -1 816707 -6.1060041189193726e-03</internalNodes>
      <leafValues>
        2.1935400366783142e-01 -5.3620409965515137e-01</leafValues></_>
    <_>
      <internalNodes>
        0 -1 293943 2.3487741127610207e-02</internalNodes>
      <leafValues>
        -2.6039645075798035e-01 5.0410109758377075e-01</leafValues></_>
    <_>
      <internalNodes>
        0 -1 233829 6.6259875893592834e-05</internalNodes>
      <leafValues>
        1.9217836856842041e-01 -6.7595082521438599e-01</leafValues></_></weakClassifiers></stage7>
</opencv_storage>
