<?xml version="1.0"?>
<opencv_storage>
<cascade>
  <stageType>BOOST</stageType>
  <featureType>HAAR</featureType>
  <height>96</height>
  <width>30</width>
  <stageParams>
    <boostType>GAB</boostType>
    <minHitRate>9.9500000476837158e-01</minHitRate>
    <maxFalseAlarm>5.0000000000000000e-01</maxFalseAlarm>
    <weightTrimRate>9.4999998807907104e-01</weightTrimRate>
    <maxDepth>1</maxDepth>
    <maxWeakCount>100</maxWeakCount></stageParams>
  <featureParams>
    <maxCatCount>0</maxCatCount>
    <featSize>1</featSize>
    <mode>ALL</mode></featureParams>
  <stageNum>30</stageNum>
  <stages>
    <!-- stage 0 -->
    <_>
      <maxWeakCount>3</maxWeakCount>
      <stageThreshold>-5.8534103631973267e-01</stageThreshold>
      <weakClassifiers>
        <_>
          <internalNodes>
            0 -1 40 -1.2536516785621643e-01</internalNodes>
          <leafValues>
            9.5744681358337402e-01 -7.1428573131561279e-01</leafValues></_>
        <_>
          <internalNodes>
            0 -1 3 -4.0278844535350800e-02</internalNodes>
          <leafValues>
            8.7747693061828613e-01 -5.8980965614318848e-01</leafValues></_>
        <_>
          <internalNodes>
            0 -1 85 -1.1768266631406732e-05</internalNodes>
          <leafValues>
            -9.6176230907440186e-01 7.1875429153442383e-01</leafValues></_></weakClassifiers></_>
    <!-- stage 1 -->
    <_>
      <maxWeakCount>3</maxWeakCount>
      <stageThreshold>-4.9126300215721130e-01</stageThreshold>
      <weakClassifiers>
        <_>
          <internalNodes>
            0 -1 11 -5.1491521298885345e-03</internalNodes>
          <leafValues>
            9.3406593799591064e-01 -5.9322035312652588e-01</leafValues></_>
        <_>
          <internalNodes>
            0 -1 90 -4.4356016442179680e-03</internalNodes>
          <leafValues>
            8.2819116115570068e-01 -7.8873360157012939e-01</leafValues></_>
        <_>
          <internalNodes>
            0 -1 20 -3.2768063829280436e-04</internalNodes>
          <leafValues>
            8.9069098234176636e-01 -6.7142719030380249e-01</leafValues></_></weakClassifiers></_>
    <!-- stage 2 -->
    <_>
      <maxWeakCount>3</maxWeakCount>
      <stageThreshold>-5.5008578300476074e-01</stageThreshold>
      <weakClassifiers>
        <_>
          <internalNodes>
            0 -1 36 -1.8968251533806324e-03</internalNodes>
          <leafValues>
            8.9583331346511841e-01 -6.6666668653488159e-01</leafValues></_>
        <_>
          <internalNodes>
            0 -1 5 -4.6525262296199799e-03</internalNodes>
          <leafValues>
            8.7995803356170654e-01 -6.6732782125473022e-01</leafValues></_>
        <_>
          <internalNodes>
            0 -1 86 -2.3330119438469410e-03</internalNodes>
          <leafValues>
            8.2677298784255981e-01 -7.6337713003158569e-01</leafValues></_></weakClassifiers></_>
    <!-- stage 3 -->
    <_>
      <maxWeakCount>2</maxWeakCount>
      <stageThreshold>1.5677556395530701e-01</stageThreshold>
      <weakClassifiers>
        <_>
          <internalNodes>
            0 -1 42 -1.0715651512145996e-01</internalNodes>
          <leafValues>
            9.7727274894714355e-01 -5.8064514398574829e-01</leafValues></_>
        <_>
          <internalNodes>
            0 -1 98 1.0527936683502048e-04</internalNodes>
          <leafValues>
            -8.2049715518951416e-01 8.8157439231872559e-01</leafValues></_></weakClassifiers></_>
    <!-- stage 4 -->
    <_>
      <maxWeakCount>4</maxWeakCount>
      <stageThreshold>-9.5950113609433174e-03</stageThreshold>
      <weakClassifiers>
        <_>
          <internalNodes>
            0 -1 33 -4.3811919167637825e-03</internalNodes>
          <leafValues>
            8.3999997377395630e-01 -6.8000000715255737e-01</leafValues></_>
        <_>
          <internalNodes>
            0 -1 93 1.0359818115830421e-03</internalNodes>
          <leafValues>
            -6.3909065723419189e-01 7.9894012212753296e-01</leafValues></_>
        <_>
          <internalNodes>
            0 -1 47 -3.4239813685417175e-02</internalNodes>
          <leafValues>
            7.2322213649749756e-01 -8.0747574567794800e-01</leafValues></_>
        <_>
          <internalNodes>
            0 -1 22 -5.2487652283161879e-04</internalNodes>
          <leafValues>
            6.7894059419631958e-01 -7.2916525602340698e-01</leafValues></_></weakClassifiers></_>
    <!-- stage 5 -->
    <_>
      <maxWeakCount>3</maxWeakCount>
      <stageThreshold>-5.6105360388755798e-02</stageThreshold>
      <weakClassifiers>
        <_>
          <internalNodes>
            0 -1 23 -1.5012907097116113e-03</internalNodes>
          <leafValues>
            8.2978725433349609e-01 -5.0000000000000000e-01</leafValues></_>
        <_>
          <internalNodes>
            0 -1 74 1.0575330816209316e-03</internalNodes>
          <leafValues>
            -4.9716502428054810e-01 9.2466199398040771e-01</leafValues></_>
        <_>
          <internalNodes>
            0 -1 31 -7.3657161556184292e-04</internalNodes>
          <leafValues>
            9.4985419511795044e-01 -3.8872757554054260e-01</leafValues></_></weakClassifiers></_>
    <!-- stage 6 -->
    <_>
      <maxWeakCount>2</maxWeakCount>
      <stageThreshold>1.5793170034885406e-01</stageThreshold>
      <weakClassifiers>
        <_>
          <internalNodes>
            0 -1 71 6.5282620198559016e-05</internalNodes>
          <leafValues>
            6.8421053886413574e-01 -7.7777779102325439e-01</leafValues></_>
        <_>
          <internalNodes>
            0 -1 0 -1.6467731911689043e-03</internalNodes>
          <leafValues>
            9.3570947647094727e-01 -5.1613223552703857e-01</leafValues></_></weakClassifiers></_>
    <!-- stage 7 -->
    <_>
      <maxWeakCount>4</maxWeakCount>
      <stageThreshold>2.7851611375808716e-01</stageThreshold>
      <weakClassifiers>
        <_>
          <internalNodes>
            0 -1 34 -4.6617307816632092e-04</internalNodes>
          <leafValues>
            8.0851066112518311e-01 -4.6428570151329041e-01</leafValues></_>
        <_>
          <internalNodes>
            0 -1 10 -1.2999671744182706e-03</internalNodes>
          <leafValues>
            6.5792828798294067e-01 -7.3868548870086670e-01</leafValues></_>
        <_>
          <internalNodes>
            0 -1 39 2.1220592316240072e-03</internalNodes>
          <leafValues>
            -5.5201250314712524e-01 8.7431818246841431e-01</leafValues></_>
        <_>
          <internalNodes>
            0 -1 29 -1.4933531638234854e-03</internalNodes>
          <leafValues>
            7.7134561538696289e-01 -6.3591033220291138e-01</leafValues></_></weakClassifiers></_>
    <!-- stage 8 -->
    <_>
      <maxWeakCount>3</maxWeakCount>
      <stageThreshold>-7.1777355670928955e-01</stageThreshold>
      <weakClassifiers>
        <_>
          <internalNodes>
            0 -1 84 5.3688938351115212e-05</internalNodes>
          <leafValues>
            6.9369369745254517e-01 -6.9230771064758301e-01</leafValues></_>
        <_>
          <internalNodes>
            0 -1 38 -5.1229901611804962e-02</internalNodes>
          <leafValues>
            7.0401513576507568e-01 -6.1575001478195190e-01</leafValues></_>
        <_>
          <internalNodes>
            0 -1 99 2.4080432922346517e-05</internalNodes>
          <leafValues>
            5.7577717304229736e-01 -7.9571717977523804e-01</leafValues></_></weakClassifiers></_>
    <!-- stage 9 -->
    <_>
      <maxWeakCount>4</maxWeakCount>
      <stageThreshold>-9.6786946058273315e-01</stageThreshold>
      <weakClassifiers>
        <_>
          <internalNodes>
            0 -1 70 2.3949527530930936e-04</internalNodes>
          <leafValues>
            6.9811320304870605e-01 -5.4545456171035767e-01</leafValues></_>
        <_>
          <internalNodes>
            0 -1 72 2.3179090931080282e-05</internalNodes>
          <leafValues>
            7.0403015613555908e-01 -6.0927027463912964e-01</leafValues></_>
        <_>
          <internalNodes>
            0 -1 67 -1.9552774727344513e-02</internalNodes>
          <leafValues>
            9.0619814395904541e-01 -4.2723360657691956e-01</leafValues></_>
        <_>
          <internalNodes>
            0 -1 106 6.1733851907774806e-05</internalNodes>
          <leafValues>
            5.8742368221282959e-01 -6.9921147823333740e-01</leafValues></_></weakClassifiers></_>
    <!-- stage 10 -->
    <_>
      <maxWeakCount>5</maxWeakCount>
      <stageThreshold>-2.3420375585556030e-01</stageThreshold>
      <weakClassifiers>
        <_>
          <internalNodes>
            0 -1 17 8.1033457536250353e-04</internalNodes>
          <leafValues>
            -4.3333333730697632e-01 8.4444445371627808e-01</leafValues></_>
        <_>
          <internalNodes>
            0 -1 83 -4.5181037421571091e-05</internalNodes>
          <leafValues>
            6.5171986818313599e-01 -6.1490535736083984e-01</leafValues></_>
        <_>
          <internalNodes>
            0 -1 112 1.1957482456637081e-05</internalNodes>
          <leafValues>
            -6.9319343566894531e-01 6.5097850561141968e-01</leafValues></_>
        <_>
          <internalNodes>
            0 -1 1 -9.9191382527351379e-02</internalNodes>
          <leafValues>
            9.3644785881042480e-01 -5.2485948801040649e-01</leafValues></_>
        <_>
          <internalNodes>
            0 -1 108 -1.0332094971090555e-03</internalNodes>
          <leafValues>
            8.7063968181610107e-01 -5.7870930433273315e-01</leafValues></_></weakClassifiers></_>
    <!-- stage 11 -->
    <_>
      <maxWeakCount>5</maxWeakCount>
      <stageThreshold>5.4977137595415115e-02</stageThreshold>
      <weakClassifiers>
        <_>
          <internalNodes>
            0 -1 16 1.5192559221759439e-03</internalNodes>
          <leafValues>
            -2.5000000000000000e-01 8.7179487943649292e-01</leafValues></_>
        <_>
          <internalNodes>
            0 -1 92 1.0748759086709470e-04</internalNodes>
          <leafValues>
            5.4047346115112305e-01 -8.3541828393936157e-01</leafValues></_>
        <_>
          <internalNodes>
            0 -1 26 -3.6554541438817978e-02</internalNodes>
          <leafValues>
            8.3464258909225464e-01 -5.3783524036407471e-01</leafValues></_>
        <_>
          <internalNodes>
            0 -1 4 7.2925933636724949e-03</internalNodes>
          <leafValues>
            -4.8689430952072144e-01 7.6435583829879761e-01</leafValues></_>
        <_>
          <internalNodes>
            0 -1 65 -6.9634048268198967e-03</internalNodes>
          <leafValues>
            1. -4.5860302448272705e-01</leafValues></_></weakClassifiers></_>
    <!-- stage 12 -->
    <_>
      <maxWeakCount>4</maxWeakCount>
      <stageThreshold>-6.0715150833129883e-01</stageThreshold>
      <weakClassifiers>
        <_>
          <internalNodes>
            0 -1 79 -1.1873016774188727e-04</internalNodes>
          <leafValues>
            8.0434781312942505e-01 -4.1379311680793762e-01</leafValues></_>
        <_>
          <internalNodes>
            0 -1 18 -1.5224958956241608e-01</internalNodes>
          <leafValues>
            8.6681658029556274e-01 -4.5355796813964844e-01</leafValues></_>
        <_>
          <internalNodes>
            0 -1 60 -3.8372425478883088e-04</internalNodes>
          <leafValues>
            7.8098839521408081e-01 -5.1702862977981567e-01</leafValues></_>
        <_>
          <internalNodes>
            0 -1 102 -1.0361749446019530e-03</internalNodes>
          <leafValues>
            9.1450428962707520e-01 -4.4091269373893738e-01</leafValues></_></weakClassifiers></_>
    <!-- stage 13 -->
    <_>
      <maxWeakCount>4</maxWeakCount>
      <stageThreshold>4.4515781104564667e-02</stageThreshold>
      <weakClassifiers>
        <_>
          <internalNodes>
            0 -1 2 3.0250577256083488e-03</internalNodes>
          <leafValues>
            6.1666667461395264e-01 -8.0000001192092896e-01</leafValues></_>
        <_>
          <internalNodes>
            0 -1 69 -1.7289925599470735e-03</internalNodes>
          <leafValues>
            7.5248354673385620e-01 -5.4879629611968994e-01</leafValues></_>
        <_>
          <internalNodes>
            0 -1 104 -9.1065280139446259e-04</internalNodes>
          <leafValues>
            8.2247334718704224e-01 -4.2300441861152649e-01</leafValues></_>
        <_>
          <internalNodes>
            0 -1 110 9.0725086920429021e-05</internalNodes>
          <leafValues>
            6.2722027301788330e-01 -7.3044115304946899e-01</leafValues></_></weakClassifiers></_>
    <!-- stage 14 -->
    <_>
      <maxWeakCount>4</maxWeakCount>
      <stageThreshold>1.9108697772026062e-01</stageThreshold>
      <weakClassifiers>
        <_>
          <internalNodes>
            0 -1 50 -7.8151869820430875e-04</internalNodes>
          <leafValues>
            9.2207789421081543e-01 -2.8767123818397522e-01</leafValues></_>
        <_>
          <internalNodes>
            0 -1 80 -2.7268148958683014e-02</internalNodes>
          <leafValues>
            6.0408085584640503e-01 -7.8648746013641357e-01</leafValues></_>
        <_>
          <internalNodes>
            0 -1 49 9.9904747912660241e-05</internalNodes>
          <leafValues>
            4.9531969428062439e-01 -7.4882644414901733e-01</leafValues></_>
        <_>
          <internalNodes>
            0 -1 111 1.2727568391710520e-03</internalNodes>
          <leafValues>
            -4.3982321023941040e-01 8.6020529270172119e-01</leafValues></_></weakClassifiers></_>
    <!-- stage 15 -->
    <_>
      <maxWeakCount>4</maxWeakCount>
      <stageThreshold>1.7313574254512787e-01</stageThreshold>
      <weakClassifiers>
        <_>
          <internalNodes>
            0 -1 96 1.4974803198128939e-03</internalNodes>
          <leafValues>
            5.7480317354202271e-01 -1.</leafValues></_>
        <_>
          <internalNodes>
            0 -1 105 -5.5756623623892665e-04</internalNodes>
          <leafValues>
            8.9668726921081543e-01 -4.1607195138931274e-01</leafValues></_>
        <_>
          <internalNodes>
            0 -1 78 -4.9859756836667657e-04</internalNodes>
          <leafValues>
            6.5906423330307007e-01 -5.3397232294082642e-01</leafValues></_>
        <_>
          <internalNodes>
            0 -1 58 -3.3817035728134215e-05</internalNodes>
          <leafValues>
            6.2295955419540405e-01 -6.4465969800949097e-01</leafValues></_></weakClassifiers></_>
    <!-- stage 16 -->
    <_>
      <maxWeakCount>5</maxWeakCount>
      <stageThreshold>4.0490855462849140e-03</stageThreshold>
      <weakClassifiers>
        <_>
          <internalNodes>
            0 -1 97 3.2456015469506383e-04</internalNodes>
          <leafValues>
            -3.8775509595870972e-01 6.8316829204559326e-01</leafValues></_>
        <_>
          <internalNodes>
            0 -1 54 -5.8142421767115593e-04</internalNodes>
          <leafValues>
            8.2148659229278564e-01 -3.6665862798690796e-01</leafValues></_>
        <_>
          <internalNodes>
            0 -1 109 -4.0552369318902493e-04</internalNodes>
          <leafValues>
            8.1878209114074707e-01 -4.7655865550041199e-01</leafValues></_>
        <_>
          <internalNodes>
            0 -1 7 -1.0534394532442093e-03</internalNodes>
          <leafValues>
            8.9600759744644165e-01 -4.0039998292922974e-01</leafValues></_>
        <_>
          <internalNodes>
            0 -1 82 -6.0017178766429424e-03</internalNodes>
          <leafValues>
            5.6449806690216064e-01 -6.5208172798156738e-01</leafValues></_></weakClassifiers></_>
    <!-- stage 17 -->
    <_>
      <maxWeakCount>5</maxWeakCount>
      <stageThreshold>-2.2437825798988342e-01</stageThreshold>
      <weakClassifiers>
        <_>
          <internalNodes>
            0 -1 12 -1.0103697422891855e-03</internalNodes>
          <leafValues>
            8.0487805604934692e-01 -2.3529411852359772e-01</leafValues></_>
        <_>
          <internalNodes>
            0 -1 57 2.1947260393062606e-05</internalNodes>
          <leafValues>
            5.5521351099014282e-01 -7.1334087848663330e-01</leafValues></_>
        <_>
          <internalNodes>
            0 -1 27 5.3597259102389216e-04</internalNodes>
          <leafValues>
            -3.9011177420616150e-01 9.7051763534545898e-01</leafValues></_>
        <_>
          <internalNodes>
            0 -1 45 -2.8167266398668289e-02</internalNodes>
          <leafValues>
            6.9641011953353882e-01 -5.9085357189178467e-01</leafValues></_>
        <_>
          <internalNodes>
            0 -1 8 -9.3427649699151516e-04</internalNodes>
          <leafValues>
            -8.5059607028961182e-01 4.6033221483230591e-01</leafValues></_></weakClassifiers></_>
    <!-- stage 18 -->
    <_>
      <maxWeakCount>4</maxWeakCount>
      <stageThreshold>-9.8243111371994019e-01</stageThreshold>
      <weakClassifiers>
        <_>
          <internalNodes>
            0 -1 59 -1.3827797956764698e-03</internalNodes>
          <leafValues>
            7.3737370967864990e-01 -4.5098039507865906e-01</leafValues></_>
        <_>
          <internalNodes>
            0 -1 44 -4.0052286931313574e-04</internalNodes>
          <leafValues>
            6.0613280534744263e-01 -5.9017854928970337e-01</leafValues></_>
        <_>
          <internalNodes>
            0 -1 89 -1.2426864355802536e-02</internalNodes>
          <leafValues>
            7.2769308090209961e-01 -4.8144945502281189e-01</leafValues></_>
        <_>
          <internalNodes>
            0 -1 30 -4.7189788892865181e-04</internalNodes>
          <leafValues>
            5.8895075321197510e-01 -6.6896528005599976e-01</leafValues></_></weakClassifiers></_>
    <!-- stage 19 -->
    <_>
      <maxWeakCount>4</maxWeakCount>
      <stageThreshold>-8.6922451853752136e-02</stageThreshold>
      <weakClassifiers>
        <_>
          <internalNodes>
            0 -1 63 3.5082262911600992e-05</internalNodes>
          <leafValues>
            6.0000002384185791e-01 -7.3333334922790527e-01</leafValues></_>
        <_>
          <internalNodes>
            0 -1 76 -1.3269349437905475e-05</internalNodes>
          <leafValues>
            -7.6298344135284424e-01 4.8436433076858521e-01</leafValues></_>
        <_>
          <internalNodes>
            0 -1 6 -5.9556923806667328e-03</internalNodes>
          <leafValues>
            7.0978802442550659e-01 -5.4927438497543335e-01</leafValues></_>
        <_>
          <internalNodes>
            0 -1 75 -1.4235340058803558e-02</internalNodes>
          <leafValues>
            7.1132093667984009e-01 -5.7652574777603149e-01</leafValues></_></weakClassifiers></_>
    <!-- stage 20 -->
    <_>
      <maxWeakCount>3</maxWeakCount>
      <stageThreshold>3.1881429255008698e-02</stageThreshold>
      <weakClassifiers>
        <_>
          <internalNodes>
            0 -1 77 -3.1370425131171942e-04</internalNodes>
          <leafValues>
            8.3720928430557251e-01 -3.4375000000000000e-01</leafValues></_>
        <_>
          <internalNodes>
            0 -1 95 -6.8618432851508260e-04</internalNodes>
          <leafValues>
            7.8634130954742432e-01 -3.0279532074928284e-01</leafValues></_>
        <_>
          <internalNodes>
            0 -1 66 1.9864681235048920e-05</internalNodes>
          <leafValues>
            -4.1070988774299622e-01 7.5428014993667603e-01</leafValues></_></weakClassifiers></_>
    <!-- stage 21 -->
    <_>
      <maxWeakCount>4</maxWeakCount>
      <stageThreshold>5.0956342369318008e-02</stageThreshold>
      <weakClassifiers>
        <_>
          <internalNodes>
            0 -1 51 -4.3113228457514197e-05</internalNodes>
          <leafValues>
            7.3333334922790527e-01 -6.0000002384185791e-01</leafValues></_>
        <_>
          <internalNodes>
            0 -1 100 -5.6222863349830732e-05</internalNodes>
          <leafValues>
            -8.3584100008010864e-01 4.4708922505378723e-01</leafValues></_>
        <_>
          <internalNodes>
            0 -1 21 -2.3046341084409505e-06</internalNodes>
          <leafValues>
            7.5339287519454956e-01 -5.5176675319671631e-01</leafValues></_>
        <_>
          <internalNodes>
            0 -1 87 3.2425427343696356e-03</internalNodes>
          <leafValues>
            -5.4952573776245117e-01 7.8659719228744507e-01</leafValues></_></weakClassifiers></_>
    <!-- stage 22 -->
    <_>
      <maxWeakCount>4</maxWeakCount>
      <stageThreshold>1.4305470883846283e-01</stageThreshold>
      <weakClassifiers>
        <_>
          <internalNodes>
            0 -1 56 1.0870021651498973e-04</internalNodes>
          <leafValues>
            6.0683763027191162e-01 -6.3636362552642822e-01</leafValues></_>
        <_>
          <internalNodes>
            0 -1 9 -6.9134647492319345e-04</internalNodes>
          <leafValues>
            6.7415982484817505e-01 -5.1191771030426025e-01</leafValues></_>
        <_>
          <internalNodes>
            0 -1 113 2.7952501113759354e-05</internalNodes>
          <leafValues>
            6.3644182682037354e-01 -5.6655955314636230e-01</leafValues></_>
        <_>
          <internalNodes>
            0 -1 25 -2.5134906172752380e-04</internalNodes>
          <leafValues>
            7.2412145137786865e-01 -5.3118330240249634e-01</leafValues></_></weakClassifiers></_>
    <!-- stage 23 -->
    <_>
      <maxWeakCount>5</maxWeakCount>
      <stageThreshold>-2.2824236750602722e-01</stageThreshold>
      <weakClassifiers>
        <_>
          <internalNodes>
            0 -1 73 -8.8235959410667419e-02</internalNodes>
          <leafValues>
            6.7619049549102783e-01 -4.6666666865348816e-01</leafValues></_>
        <_>
          <internalNodes>
            0 -1 52 9.6164203569060192e-06</internalNodes>
          <leafValues>
            -4.3595138192176819e-01 6.5778040885925293e-01</leafValues></_>
        <_>
          <internalNodes>
            0 -1 103 8.6325817392207682e-05</internalNodes>
          <leafValues>
            5.6083893775939941e-01 -6.0347127914428711e-01</leafValues></_>
        <_>
          <internalNodes>
            0 -1 53 2.9158632969483733e-04</internalNodes>
          <leafValues>
            -4.6345064043998718e-01 7.8666430711746216e-01</leafValues></_>
        <_>
          <internalNodes>
            0 -1 81 2.8757133350154618e-06</internalNodes>
          <leafValues>
            -5.6586974859237671e-01 7.2042787075042725e-01</leafValues></_></weakClassifiers></_>
    <!-- stage 24 -->
    <_>
      <maxWeakCount>3</maxWeakCount>
      <stageThreshold>3.6540573835372925e-01</stageThreshold>
      <weakClassifiers>
        <_>
          <internalNodes>
            0 -1 19 -1.8700474174693227e-04</internalNodes>
          <leafValues>
            -7.3333334922790527e-01 6.0000002384185791e-01</leafValues></_>
        <_>
          <internalNodes>
            0 -1 88 -2.0836643874645233e-02</internalNodes>
          <leafValues>
            6.3981407880783081e-01 -5.8035308122634888e-01</leafValues></_>
        <_>
          <internalNodes>
            0 -1 94 2.3914965368021512e-06</internalNodes>
          <leafValues>
            -8.7440836429595947e-01 4.8377108573913574e-01</leafValues></_></weakClassifiers></_>
    <!-- stage 25 -->
    <_>
      <maxWeakCount>3</maxWeakCount>
      <stageThreshold>8.4454365074634552e-02</stageThreshold>
      <weakClassifiers>
        <_>
          <internalNodes>
            0 -1 32 -1.3392845867201686e-03</internalNodes>
          <leafValues>
            7.5555557012557983e-01 -3.0000001192092896e-01</leafValues></_>
        <_>
          <internalNodes>
            0 -1 46 2.0504953339695930e-02</internalNodes>
          <leafValues>
            -2.4611642956733704e-01 1.</leafValues></_>
        <_>
          <internalNodes>
            0 -1 48 -7.0234606973826885e-03</internalNodes>
          <leafValues>
            8.1111633777618408e-01 -4.2498478293418884e-01</leafValues></_></weakClassifiers></_>
    <!-- stage 26 -->
    <_>
      <maxWeakCount>5</maxWeakCount>
      <stageThreshold>-1.0004940629005432e-01</stageThreshold>
      <weakClassifiers>
        <_>
          <internalNodes>
            0 -1 13 -5.0763432227540761e-05</internalNodes>
          <leafValues>
            7.0588237047195435e-01 -4.5833334326744080e-01</leafValues></_>
        <_>
          <internalNodes>
            0 -1 14 -3.9577190182171762e-04</internalNodes>
          <leafValues>
            7.1371847391128540e-01 -5.3100043535232544e-01</leafValues></_>
        <_>
          <internalNodes>
            0 -1 68 -3.1310901977121830e-03</internalNodes>
          <leafValues>
            9.0238529443740845e-01 -3.8352942466735840e-01</leafValues></_>
        <_>
          <internalNodes>
            0 -1 61 -1.3955263420939445e-04</internalNodes>
          <leafValues>
            7.3178011178970337e-01 -5.0137579441070557e-01</leafValues></_>
        <_>
          <internalNodes>
            0 -1 24 -6.4681540243327618e-04</internalNodes>
          <leafValues>
            6.0997390747070312e-01 -5.9780877828598022e-01</leafValues></_></weakClassifiers></_>
    <!-- stage 27 -->
    <_>
      <maxWeakCount>4</maxWeakCount>
      <stageThreshold>-5.7765319943428040e-02</stageThreshold>
      <weakClassifiers>
        <_>
          <internalNodes>
            0 -1 28 -4.2469121399335563e-04</internalNodes>
          <leafValues>
            -6.2500000000000000e-01 5.9322035312652588e-01</leafValues></_>
        <_>
          <internalNodes>
            0 -1 55 -4.3965893564745784e-04</internalNodes>
          <leafValues>
            -5.3139364719390869e-01 6.2004554271697998e-01</leafValues></_>
        <_>
          <internalNodes>
            0 -1 107 -2.2177683422341943e-04</internalNodes>
          <leafValues>
            -6.7705565690994263e-01 5.2324008941650391e-01</leafValues></_>
        <_>
          <internalNodes>
            0 -1 62 7.4837960710283369e-05</internalNodes>
          <leafValues>
            6.1395967006683350e-01 -5.7605093717575073e-01</leafValues></_></weakClassifiers></_>
    <!-- stage 28 -->
    <_>
      <maxWeakCount>4</maxWeakCount>
      <stageThreshold>3.9112590253353119e-02</stageThreshold>
      <weakClassifiers>
        <_>
          <internalNodes>
            0 -1 91 -1.4469347661361098e-04</internalNodes>
          <leafValues>
            7.2277230024337769e-01 -4.6938776969909668e-01</leafValues></_>
        <_>
          <internalNodes>
            0 -1 37 2.8863310944871046e-05</internalNodes>
          <leafValues>
            4.9568453431129456e-01 -7.7998733520507812e-01</leafValues></_>
        <_>
          <internalNodes>
            0 -1 64 4.7563612461090088e-03</internalNodes>
          <leafValues>
            -3.8980051875114441e-01 9.2983633279800415e-01</leafValues></_>
        <_>
          <internalNodes>
            0 -1 101 5.3466486860997975e-05</internalNodes>
          <leafValues>
            4.8612818121910095e-01 -7.4068492650985718e-01</leafValues></_></weakClassifiers></_>
    <!-- stage 29 -->
    <_>
      <maxWeakCount>4</maxWeakCount>
      <stageThreshold>1.1867396533489227e-01</stageThreshold>
      <weakClassifiers>
        <_>
          <internalNodes>
            0 -1 15 2.7419874095357955e-04</internalNodes>
          <leafValues>
            5.5199998617172241e-01 -7.5999999046325684e-01</leafValues></_>
        <_>
          <internalNodes>
            0 -1 43 1.2714210897684097e-03</internalNodes>
          <leafValues>
            -3.7531891465187073e-01 9.0212839841842651e-01</leafValues></_>
        <_>
          <internalNodes>
            0 -1 35 -4.3912464752793312e-03</internalNodes>
          <leafValues>
            6.2689942121505737e-01 -5.0099045038223267e-01</leafValues></_>
        <_>
          <internalNodes>
            0 -1 41 -7.3819175362586975e-02</internalNodes>
          <leafValues>
            5.5349493026733398e-01 -6.8490654230117798e-01</leafValues></_></weakClassifiers></_></stages>
  <features>
    <_>
      <rects>
        <_>
          0 8 28 1 -1.</_>
        <_>
          7 8 14 1 2.</_></rects>
      <tilted>0</tilted></_>
    <_>
      <rects>
        <_>
          0 19 30 27 -1.</_>
        <_>
          10 28 10 9 9.</_></rects>
      <tilted>0</tilted></_>
    <_>
      <rects>
        <_>
          0 20 7 52 -1.</_>
        <_>
          0 33 7 26 2.</_></rects>
      <tilted>0</tilted></_>
    <_>
      <rects>
        <_>
          0 27 15 42 -1.</_>
        <_>
          5 41 5 14 9.</_></rects>
      <tilted>0</tilted></_>
    <_>
      <rects>
        <_>
          0 29 6 60 -1.</_>
        <_>
          0 29 3 30 2.</_>
        <_>
          3 59 3 30 2.</_></rects>
      <tilted>0</tilted></_>
    <_>
      <rects>
        <_>
          0 36 21 24 -1.</_>
        <_>
          0 44 21 8 3.</_></rects>
      <tilted>0</tilted></_>
    <_>
      <rects>
        <_>
          0 45 21 12 -1.</_>
        <_>
          7 49 7 4 9.</_></rects>
      <tilted>0</tilted></_>
    <_>
      <rects>
        <_>
          0 53 4 21 -1.</_>
        <_>
          1 53 2 21 2.</_></rects>
      <tilted>0</tilted></_>
    <_>
      <rects>
        <_>
          0 69 8 6 -1.</_>
        <_>
          0 71 8 2 3.</_></rects>
      <tilted>0</tilted></_>
    <_>
      <rects>
        <_>
          0 81 8 12 -1.</_>
        <_>
          2 81 4 12 2.</_></rects>
      <tilted>0</tilted></_>
    <_>
      <rects>
        <_>
          0 84 12 12 -1.</_>
        <_>
          0 88 12 4 3.</_></rects>
      <tilted>0</tilted></_>
    <_>
      <rects>
        <_>
          0 84 28 12 -1.</_>
        <_>
          0 87 28 6 2.</_></rects>
      <tilted>0</tilted></_>
    <_>
      <rects>
        <_>
          0 85 9 9 -1.</_>
        <_>
          3 85 3 9 3.</_></rects>
      <tilted>0</tilted></_>
    <_>
      <rects>
        <_>
          0 88 4 5 -1.</_>
        <_>
          2 88 2 5 2.</_></rects>
      <tilted>0</tilted></_>
    <_>
      <rects>
        <_>
          0 93 28 3 -1.</_>
        <_>
          0 94 28 1 3.</_></rects>
      <tilted>0</tilted></_>
    <_>
      <rects>
        <_>
          0 94 22 1 -1.</_>
        <_>
          11 94 11 1 2.</_></rects>
      <tilted>0</tilted></_>
    <_>
      <rects>
        <_>
          0 94 20 2 -1.</_>
        <_>
          0 95 20 1 2.</_></rects>
      <tilted>0</tilted></_>
    <_>
      <rects>
        <_>
          0 94 23 2 -1.</_>
        <_>
          0 95 23 1 2.</_></rects>
      <tilted>0</tilted></_>
    <_>
      <rects>
        <_>
          1 23 27 51 -1.</_>
        <_>
          1 40 27 17 3.</_></rects>
      <tilted>0</tilted></_>
    <_>
      <rects>
        <_>
          1 34 6 3 -1.</_>
        <_>
          1 35 6 1 3.</_></rects>
      <tilted>0</tilted></_>
    <_>
      <rects>
        <_>
          1 36 8 4 -1.</_>
        <_>
          5 36 4 4 2.</_></rects>
      <tilted>0</tilted></_>
    <_>
      <rects>
        <_>
          1 43 1 4 -1.</_>
        <_>
          1 44 1 2 2.</_></rects>
      <tilted>0</tilted></_>
    <_>
      <rects>
        <_>
          1 85 12 10 -1.</_>
        <_>
          4 85 6 10 2.</_></rects>
      <tilted>0</tilted></_>
    <_>
      <rects>
        <_>
          1 86 18 10 -1.</_>
        <_>
          1 86 9 5 2.</_>
        <_>
          10 91 9 5 2.</_></rects>
      <tilted>0</tilted></_>
    <_>
      <rects>
        <_>
          1 87 12 8 -1.</_>
        <_>
          1 87 6 4 2.</_>
        <_>
          7 91 6 4 2.</_></rects>
      <tilted>0</tilted></_>
    <_>
      <rects>
        <_>
          2 0 20 2 -1.</_>
        <_>
          2 1 20 1 2.</_></rects>
      <tilted>0</tilted></_>
    <_>
      <rects>
        <_>
          2 1 24 15 -1.</_>
        <_>
          10 6 8 5 9.</_></rects>
      <tilted>0</tilted></_>
    <_>
      <rects>
        <_>
          2 41 2 2 -1.</_>
        <_>
          2 41 1 2 2.</_></rects>
      <tilted>1</tilted></_>
    <_>
      <rects>
        <_>
          2 67 2 12 -1.</_>
        <_>
          2 70 2 6 2.</_></rects>
      <tilted>0</tilted></_>
    <_>
      <rects>
        <_>
          2 90 15 6 -1.</_>
        <_>
          2 92 15 2 3.</_></rects>
      <tilted>0</tilted></_>
    <_>
      <rects>
        <_>
          2 94 14 1 -1.</_>
        <_>
          9 94 7 1 2.</_></rects>
      <tilted>0</tilted></_>
    <_>
      <rects>
        <_>
          3 6 21 1 -1.</_>
        <_>
          10 6 7 1 3.</_></rects>
      <tilted>0</tilted></_>
    <_>
      <rects>
        <_>
          3 33 1 27 -1.</_>
        <_>
          3 42 1 9 3.</_></rects>
      <tilted>0</tilted></_>
    <_>
      <rects>
        <_>
          3 80 22 12 -1.</_>
        <_>
          3 86 22 6 2.</_></rects>
      <tilted>0</tilted></_>
    <_>
      <rects>
        <_>
          3 90 18 6 -1.</_>
        <_>
          9 90 6 6 3.</_></rects>
      <tilted>0</tilted></_>
    <_>
      <rects>
        <_>
          3 90 21 6 -1.</_>
        <_>
          3 92 21 2 3.</_></rects>
      <tilted>0</tilted></_>
    <_>
      <rects>
        <_>
          3 93 27 3 -1.</_>
        <_>
          12 93 9 3 3.</_></rects>
      <tilted>0</tilted></_>
    <_>
      <rects>
        <_>
          4 13 1 2 -1.</_>
        <_>
          4 14 1 1 2.</_></rects>
      <tilted>0</tilted></_>
    <_>
      <rects>
        <_>
          4 14 24 28 -1.</_>
        <_>
          4 28 24 14 2.</_></rects>
      <tilted>0</tilted></_>
    <_>
      <rects>
        <_>
          4 26 4 36 -1.</_>
        <_>
          4 26 2 18 2.</_>
        <_>
          6 44 2 18 2.</_></rects>
      <tilted>0</tilted></_>
    <_>
      <rects>
        <_>
          5 4 21 75 -1.</_>
        <_>
          5 29 21 25 3.</_></rects>
      <tilted>0</tilted></_>
    <_>
      <rects>
        <_>
          5 6 9 66 -1.</_>
        <_>
          8 28 3 22 9.</_></rects>
      <tilted>0</tilted></_>
    <_>
      <rects>
        <_>
          5 9 22 64 -1.</_>
        <_>
          5 25 22 32 2.</_></rects>
      <tilted>0</tilted></_>
    <_>
      <rects>
        <_>
          5 28 4 4 -1.</_>
        <_>
          5 28 2 4 2.</_></rects>
      <tilted>1</tilted></_>
    <_>
      <rects>
        <_>
          5 29 12 2 -1.</_>
        <_>
          9 33 4 2 3.</_></rects>
      <tilted>1</tilted></_>
    <_>
      <rects>
        <_>
          5 66 13 30 -1.</_>
        <_>
          5 81 13 15 2.</_></rects>
      <tilted>0</tilted></_>
    <_>
      <rects>
        <_>
          6 1 12 70 -1.</_>
        <_>
          12 1 6 70 2.</_></rects>
      <tilted>0</tilted></_>
    <_>
      <rects>
        <_>
          6 11 10 72 -1.</_>
        <_>
          6 29 10 36 2.</_></rects>
      <tilted>0</tilted></_>
    <_>
      <rects>
        <_>
          6 15 12 28 -1.</_>
        <_>
          10 15 4 28 3.</_></rects>
      <tilted>0</tilted></_>
    <_>
      <rects>
        <_>
          6 37 1 9 -1.</_>
        <_>
          6 40 1 3 3.</_></rects>
      <tilted>0</tilted></_>
    <_>
      <rects>
        <_>
          6 93 16 3 -1.</_>
        <_>
          6 94 16 1 3.</_></rects>
      <tilted>0</tilted></_>
    <_>
      <rects>
        <_>
          6 95 18 1 -1.</_>
        <_>
          12 95 6 1 3.</_></rects>
      <tilted>0</tilted></_>
    <_>
      <rects>
        <_>
          7 83 2 7 -1.</_>
        <_>
          8 83 1 7 2.</_></rects>
      <tilted>0</tilted></_>
    <_>
      <rects>
        <_>
          8 20 6 8 -1.</_>
        <_>
          8 20 3 4 2.</_>
        <_>
          11 24 3 4 2.</_></rects>
      <tilted>0</tilted></_>
    <_>
      <rects>
        <_>
          8 43 12 6 -1.</_>
        <_>
          8 46 12 3 2.</_></rects>
      <tilted>0</tilted></_>
    <_>
      <rects>
        <_>
          9 38 5 12 -1.</_>
        <_>
          9 41 5 6 2.</_></rects>
      <tilted>0</tilted></_>
    <_>
      <rects>
        <_>
          9 90 3 4 -1.</_>
        <_>
          10 90 1 4 3.</_></rects>
      <tilted>0</tilted></_>
    <_>
      <rects>
        <_>
          9 93 2 2 -1.</_>
        <_>
          9 93 1 1 2.</_>
        <_>
          10 94 1 1 2.</_></rects>
      <tilted>0</tilted></_>
    <_>
      <rects>
        <_>
          9 93 2 1 -1.</_>
        <_>
          9 93 1 1 2.</_></rects>
      <tilted>1</tilted></_>
    <_>
      <rects>
        <_>
          9 93 21 2 -1.</_>
        <_>
          16 93 7 2 3.</_></rects>
      <tilted>0</tilted></_>
    <_>
      <rects>
        <_>
          9 93 14 3 -1.</_>
        <_>
          9 94 14 1 3.</_></rects>
      <tilted>0</tilted></_>
    <_>
      <rects>
        <_>
          10 6 9 4 -1.</_>
        <_>
          10 7 9 2 2.</_></rects>
      <tilted>0</tilted></_>
    <_>
      <rects>
        <_>
          11 59 9 2 -1.</_>
        <_>
          11 60 9 1 2.</_></rects>
      <tilted>0</tilted></_>
    <_>
      <rects>
        <_>
          11 94 3 1 -1.</_>
        <_>
          12 94 1 1 3.</_></rects>
      <tilted>0</tilted></_>
    <_>
      <rects>
        <_>
          12 6 6 12 -1.</_>
        <_>
          8 10 6 4 3.</_></rects>
      <tilted>1</tilted></_>
    <_>
      <rects>
        <_>
          12 13 9 44 -1.</_>
        <_>
          15 13 3 44 3.</_></rects>
      <tilted>0</tilted></_>
    <_>
      <rects>
        <_>
          12 32 4 4 -1.</_>
        <_>
          12 32 2 2 2.</_>
        <_>
          14 34 2 2 2.</_></rects>
      <tilted>0</tilted></_>
    <_>
      <rects>
        <_>
          13 15 15 36 -1.</_>
        <_>
          18 15 5 36 3.</_></rects>
      <tilted>0</tilted></_>
    <_>
      <rects>
        <_>
          13 16 6 9 -1.</_>
        <_>
          15 18 2 9 3.</_></rects>
      <tilted>1</tilted></_>
    <_>
      <rects>
        <_>
          13 81 2 12 -1.</_>
        <_>
          10 84 2 6 2.</_></rects>
      <tilted>1</tilted></_>
    <_>
      <rects>
        <_>
          13 91 4 4 -1.</_>
        <_>
          15 91 2 4 2.</_></rects>
      <tilted>0</tilted></_>
    <_>
      <rects>
        <_>
          13 92 3 1 -1.</_>
        <_>
          14 93 1 1 3.</_></rects>
      <tilted>1</tilted></_>
    <_>
      <rects>
        <_>
          14 47 2 1 -1.</_>
        <_>
          15 47 1 1 2.</_></rects>
      <tilted>0</tilted></_>
    <_>
      <rects>
        <_>
          16 0 12 78 -1.</_>
        <_>
          20 26 4 26 9.</_></rects>
      <tilted>0</tilted></_>
    <_>
      <rects>
        <_>
          16 33 14 3 -1.</_>
        <_>
          23 33 7 3 2.</_></rects>
      <tilted>0</tilted></_>
    <_>
      <rects>
        <_>
          16 35 14 54 -1.</_>
        <_>
          16 35 7 27 2.</_>
        <_>
          23 62 7 27 2.</_></rects>
      <tilted>0</tilted></_>
    <_>
      <rects>
        <_>
          16 92 4 4 -1.</_>
        <_>
          16 92 2 2 2.</_>
        <_>
          18 94 2 2 2.</_></rects>
      <tilted>0</tilted></_>
    <_>
      <rects>
        <_>
          16 92 8 4 -1.</_>
        <_>
          16 93 8 2 2.</_></rects>
      <tilted>0</tilted></_>
    <_>
      <rects>
        <_>
          17 42 11 8 -1.</_>
        <_>
          15 44 11 4 2.</_></rects>
      <tilted>1</tilted></_>
    <_>
      <rects>
        <_>
          17 92 9 3 -1.</_>
        <_>
          17 93 9 1 3.</_></rects>
      <tilted>0</tilted></_>
    <_>
      <rects>
        <_>
          18 19 12 48 -1.</_>
        <_>
          22 35 4 16 9.</_></rects>
      <tilted>0</tilted></_>
    <_>
      <rects>
        <_>
          18 57 7 12 -1.</_>
        <_>
          18 61 7 4 3.</_></rects>
      <tilted>0</tilted></_>
    <_>
      <rects>
        <_>
          18 85 12 9 -1.</_>
        <_>
          22 88 4 3 9.</_></rects>
      <tilted>0</tilted></_>
    <_>
      <rects>
        <_>
          18 89 12 1 -1.</_>
        <_>
          22 89 4 1 3.</_></rects>
      <tilted>0</tilted></_>
    <_>
      <rects>
        <_>
          18 93 3 3 -1.</_>
        <_>
          19 93 1 3 3.</_></rects>
      <tilted>0</tilted></_>
    <_>
      <rects>
        <_>
          19 92 6 4 -1.</_>
        <_>
          19 94 6 2 2.</_></rects>
      <tilted>0</tilted></_>
    <_>
      <rects>
        <_>
          20 16 3 44 -1.</_>
        <_>
          20 27 3 22 2.</_></rects>
      <tilted>0</tilted></_>
    <_>
      <rects>
        <_>
          20 83 10 10 -1.</_>
        <_>
          20 83 5 5 2.</_>
        <_>
          25 88 5 5 2.</_></rects>
      <tilted>0</tilted></_>
    <_>
      <rects>
        <_>
          21 12 2 69 -1.</_>
        <_>
          21 35 2 23 3.</_></rects>
      <tilted>0</tilted></_>
    <_>
      <rects>
        <_>
          21 13 2 52 -1.</_>
        <_>
          21 26 2 26 2.</_></rects>
      <tilted>0</tilted></_>
    <_>
      <rects>
        <_>
          21 31 8 33 -1.</_>
        <_>
          21 42 8 11 3.</_></rects>
      <tilted>0</tilted></_>
    <_>
      <rects>
        <_>
          21 88 6 1 -1.</_>
        <_>
          23 90 2 1 3.</_></rects>
      <tilted>1</tilted></_>
    <_>
      <rects>
        <_>
          21 92 1 2 -1.</_>
        <_>
          21 92 1 1 2.</_></rects>
      <tilted>1</tilted></_>
    <_>
      <rects>
        <_>
          22 91 8 4 -1.</_>
        <_>
          26 91 4 4 2.</_></rects>
      <tilted>0</tilted></_>
    <_>
      <rects>
        <_>
          23 92 5 2 -1.</_>
        <_>
          23 93 5 1 2.</_></rects>
      <tilted>0</tilted></_>
    <_>
      <rects>
        <_>
          24 25 2 68 -1.</_>
        <_>
          24 25 1 34 2.</_>
        <_>
          25 59 1 34 2.</_></rects>
      <tilted>0</tilted></_>
    <_>
      <rects>
        <_>
          24 79 6 16 -1.</_>
        <_>
          24 83 6 8 2.</_></rects>
      <tilted>0</tilted></_>
    <_>
      <rects>
        <_>
          24 83 6 4 -1.</_>
        <_>
          24 83 6 2 2.</_></rects>
      <tilted>1</tilted></_>
    <_>
      <rects>
        <_>
          24 90 3 6 -1.</_>
        <_>
          24 93 3 3 2.</_></rects>
      <tilted>0</tilted></_>
    <_>
      <rects>
        <_>
          24 91 1 3 -1.</_>
        <_>
          23 92 1 1 3.</_></rects>
      <tilted>1</tilted></_>
    <_>
      <rects>
        <_>
          25 13 4 2 -1.</_>
        <_>
          25 13 2 1 2.</_>
        <_>
          27 14 2 1 2.</_></rects>
      <tilted>0</tilted></_>
    <_>
      <rects>
        <_>
          26 4 4 2 -1.</_>
        <_>
          26 5 4 1 2.</_></rects>
      <tilted>0</tilted></_>
    <_>
      <rects>
        <_>
          26 35 4 19 -1.</_>
        <_>
          27 35 2 19 2.</_></rects>
      <tilted>0</tilted></_>
    <_>
      <rects>
        <_>
          26 43 3 3 -1.</_>
        <_>
          27 44 1 3 3.</_></rects>
      <tilted>1</tilted></_>
    <_>
      <rects>
        <_>
          26 44 4 9 -1.</_>
        <_>
          27 44 2 9 2.</_></rects>
      <tilted>0</tilted></_>
    <_>
      <rects>
        <_>
          26 63 3 29 -1.</_>
        <_>
          27 63 1 29 3.</_></rects>
      <tilted>0</tilted></_>
    <_>
      <rects>
        <_>
          27 7 2 4 -1.</_>
        <_>
          27 9 2 2 2.</_></rects>
      <tilted>0</tilted></_>
    <_>
      <rects>
        <_>
          27 29 2 9 -1.</_>
        <_>
          27 32 2 3 3.</_></rects>
      <tilted>0</tilted></_>
    <_>
      <rects>
        <_>
          27 39 1 24 -1.</_>
        <_>
          27 47 1 8 3.</_></rects>
      <tilted>0</tilted></_>
    <_>
      <rects>
        <_>
          27 44 3 8 -1.</_>
        <_>
          28 44 1 8 3.</_></rects>
      <tilted>0</tilted></_>
    <_>
      <rects>
        <_>
          28 1 2 6 -1.</_>
        <_>
          29 1 1 6 2.</_></rects>
      <tilted>0</tilted></_>
    <_>
      <rects>
        <_>
          28 26 2 26 -1.</_>
        <_>
          28 26 1 13 2.</_>
        <_>
          29 39 1 13 2.</_></rects>
      <tilted>0</tilted></_>
    <_>
      <rects>
        <_>
          28 30 2 18 -1.</_>
        <_>
          29 30 1 18 2.</_></rects>
      <tilted>0</tilted></_>
    <_>
      <rects>
        <_>
          28 86 2 8 -1.</_>
        <_>
          28 86 1 4 2.</_>
        <_>
          29 90 1 4 2.</_></rects>
      <tilted>0</tilted></_></features></cascade>
</opencv_storage>
