<?xml version="1.0"?>
<opencv_storage>
<stage5>
  <maxWeakCount>16</maxWeakCount>
  <stageThreshold>-1.0921218395233154e+00</stageThreshold>
  <weakClassifiers>
    <_>
      <internalNodes>
        0 -1 5951758 -2.8950052801519632e-03</internalNodes>
      <leafValues>
        5.5121952295303345e-01 -5.1557791233062744e-01</leafValues></_>
    <_>
      <internalNodes>
        0 -1 346948 -1.2118730228394270e-03</internalNodes>
      <leafValues>
        4.0889671444892883e-01 -3.9350372552871704e-01</leafValues></_>
    <_>
      <internalNodes>
        0 -1 5957492 9.8427629563957453e-04</internalNodes>
      <leafValues>
        -3.1130978465080261e-01 4.1375181078910828e-01</leafValues></_>
    <_>
      <internalNodes>
        0 -1 1128903 1.3853071257472038e-02</internalNodes>
      <leafValues>
        -2.0281687378883362e-01 5.2950984239578247e-01</leafValues></_>
    <_>
      <internalNodes>
        0 -1 1009825 -2.8160511647001840e-05</internalNodes>
      <leafValues>
        -5.9862107038497925e-01 2.0649264752864838e-01</leafValues></_>
    <_>
      <internalNodes>
        0 -1 567078 1.5737449575681239e-04</internalNodes>
      <leafValues>
        1.4595818519592285e-01 -6.8874830007553101e-01</leafValues></_>
    <_>
      <internalNodes>
        0 -1 229061 -2.9038671404123306e-02</internalNodes>
      <leafValues>
        3.2460951805114746e-01 -3.4293332695960999e-01</leafValues></_>
    <_>
      <internalNodes>
        0 -1 1068434 3.9024908095598221e-02</internalNodes>
      <leafValues>
        -1.2684068083763123e-01 8.2595896720886230e-01</leafValues></_>
    <_>
      <internalNodes>
        0 -1 1332491 -7.6136127114295959e-02</internalNodes>
      <leafValues>
        6.3276946544647217e-01 -1.6976547241210938e-01</leafValues></_>
    <_>
      <internalNodes>
        0 -1 5623341 -3.6900383420288563e-03</internalNodes>
      <leafValues>
        2.9773408174514771e-01 -3.9596468210220337e-01</leafValues></_>
    <_>
      <internalNodes>
        0 -1 344557 3.7882848118897527e-05</internalNodes>
      <leafValues>
        2.0003582537174225e-01 -5.2563881874084473e-01</leafValues></_>
    <_>
      <internalNodes>
        0 -1 113372 -1.0781709104776382e-02</internalNodes>
      <leafValues>
        4.8151609301567078e-01 -2.3484747111797333e-01</leafValues></_>
    <_>
      <internalNodes>
        0 -1 5961771 -5.4363335948437452e-05</internalNodes>
      <leafValues>
        -7.3485708236694336e-01 1.5465377271175385e-01</leafValues></_>
    <_>
      <internalNodes>
        0 -1 5033533 2.1538599394261837e-03</internalNodes>
      <leafValues>
        -3.5243532061576843e-01 3.0129230022430420e-01</leafValues></_>
    <_>
      <internalNodes>
        0 -1 2026394 -5.2805105224251747e-03</internalNodes>
      <leafValues>
        6.0897040367126465e-01 -1.8035984039306641e-01</leafValues></_>
    <_>
      <internalNodes>
        0 -1 5741197 5.5015851103235036e-05</internalNodes>
      <leafValues>
        1.5604493021965027e-01 -7.7343839406967163e-01</leafValues></_></weakClassifiers></stage5>
</opencv_storage>
