<?xml version="1.0"?>
<opencv_storage>
<stage14>
  <maxWeakCount>9</maxWeakCount>
  <stageThreshold>-8.5697948932647705e-01</stageThreshold>
  <weakClassifiers>
    <_>
      <internalNodes>
        0 -1 5579774 1.6102031804621220e-03</internalNodes>
      <leafValues>
        -2.5373134016990662e-01 6.2907266616821289e-01</leafValues></_>
    <_>
      <internalNodes>
        0 -1 5873709 -7.3370016179978848e-03</internalNodes>
      <leafValues>
        6.5772825479507446e-01 -2.2640304267406464e-01</leafValues></_>
    <_>
      <internalNodes>
        0 -1 3588941 2.8093056243960746e-05</internalNodes>
      <leafValues>
        3.1122955679893494e-01 -5.4806816577911377e-01</leafValues></_>
    <_>
      <internalNodes>
        0 -1 923596 -9.8271761089563370e-05</internalNodes>
      <leafValues>
        3.5169765353202820e-01 -4.4971078634262085e-01</leafValues></_>
    <_>
      <internalNodes>
        0 -1 2650907 1.9589291885495186e-02</internalNodes>
      <leafValues>
        -2.3355124890804291e-01 7.8752958774566650e-01</leafValues></_>
    <_>
      <internalNodes>
        0 -1 5938884 9.1437257651705295e-05</internalNodes>
      <leafValues>
        2.7930602431297302e-01 -6.4311689138412476e-01</leafValues></_>
    <_>
      <internalNodes>
        0 -1 3082957 3.6992831155657768e-04</internalNodes>
      <leafValues>
        2.3913387954235077e-01 -6.4356356859207153e-01</leafValues></_>
    <_>
      <internalNodes>
        0 -1 5646839 1.3550405856221914e-04</internalNodes>
      <leafValues>
        1.7102576792240143e-01 -8.0681020021438599e-01</leafValues></_>
    <_>
      <internalNodes>
        0 -1 418585 -7.0277294144034386e-03</internalNodes>
      <leafValues>
        -6.5598666667938232e-01 2.2189509868621826e-01</leafValues></_></weakClassifiers></stage14>
</opencv_storage>
