<?xml version="1.0"?>
<opencv_storage>
<stage15>
  <maxWeakCount>10</maxWeakCount>
  <stageThreshold>-7.2201484441757202e-01</stageThreshold>
  <weakClassifiers>
    <_>
      <internalNodes>
        0 -1 5183329 2.9054670594632626e-03</internalNodes>
      <leafValues>
        -1.9634702801704407e-01 6.3779526948928833e-01</leafValues></_>
    <_>
      <internalNodes>
        0 -1 696182 -6.8456478416919708e-02</internalNodes>
      <leafValues>
        8.1570827960968018e-01 -1.3918296992778778e-01</leafValues></_>
    <_>
      <internalNodes>
        0 -1 345011 -4.8652233090251684e-04</internalNodes>
      <leafValues>
        3.4783393144607544e-01 -4.4529113173484802e-01</leafValues></_>
    <_>
      <internalNodes>
        0 -1 5872173 -6.1916178092360497e-03</internalNodes>
      <leafValues>
        4.4144049286842346e-01 -3.4139990806579590e-01</leafValues></_>
    <_>
      <internalNodes>
        0 -1 5962788 -4.4871176214655861e-05</internalNodes>
      <leafValues>
        -7.5167220830917358e-01 1.8845802545547485e-01</leafValues></_>
    <_>
      <internalNodes>
        0 -1 4513353 -6.9239159347489476e-04</internalNodes>
      <leafValues>
        5.5772471427917480e-01 -2.4178643524646759e-01</leafValues></_>
    <_>
      <internalNodes>
        0 -1 5868853 3.4214719198644161e-04</internalNodes>
      <leafValues>
        3.0164563655853271e-01 -5.3712481260299683e-01</leafValues></_>
    <_>
      <internalNodes>
        0 -1 5767971 7.0876546669751406e-04</internalNodes>
      <leafValues>
        1.7403656244277954e-01 -8.3589810132980347e-01</leafValues></_>
    <_>
      <internalNodes>
        0 -1 3640298 -3.7357239052653313e-03</internalNodes>
      <leafValues>
        5.8589696884155273e-01 -2.7585816383361816e-01</leafValues></_>
    <_>
      <internalNodes>
        0 -1 216756 -6.0683902120217681e-04</internalNodes>
      <leafValues>
        3.4480208158493042e-01 -4.8348441720008850e-01</leafValues></_></weakClassifiers></stage15>
</opencv_storage>
